{
  "weightsInputHidden": [
    [
      4.9115006128737511,
      3.5919990285701737,
      8.0696798636708067,
      8.194921049438765,
      -3.2290928248096105,
      -5.0088195006746137,
      0.52177795969532959,
      8.2142323721124164,
      4.1527098242874,
      -4.5581014033984708,
      -0.39422223805905671,
      17.360739545078243,
      19.274924856187916,
      9.2760652601111726,
      -9.5939080680850264,
      -37.002959932053372,
      -33.670522589532162,
      -26.136166299236368,
      -15.7157522776767,
      -6.7615808099418855,
      -6.7573212615565641,
      -14.012636717944544,
      -14.727863580025254,
      -14.96217951523856,
      -11.493940713886659,
      -8.73690254118645,
      -8.35569427366961,
      -4.7736968896434915,
      -3.3159140596179677,
      -1.095061251887139,
      1.87974444379948,
      3.978553415809376
    ],
    [
      8.288735220054873,
      -0.29833904449267895,
      3.605025394337698,
      37.248027487803391,
      -1.0493793388558621,
      2.64511770572525,
      -1.0115271289088152,
      16.871890738289849,
      15.529233066796323,
      -4.3183037592991909,
      -23.719159135845025,
      32.260652960936554,
      28.006934534081683,
      16.723335947754979,
      2.9772692780169088,
      -37.386764397187427,
      -25.174515140444942,
      -42.2701238358177,
      -29.386595123725833,
      -19.525558342981888,
      -23.30240445596672,
      -27.397011622712174,
      -23.2697425526971,
      -19.862601378999937,
      -4.150556174370859,
      2.7425503911227014,
      2.8005191057251348,
      3.1418684775729036,
      4.1718853838267762,
      5.4263064399024117,
      8.6814709877468239,
      9.46014849248157
    ],
    [
      -7.829380749188589,
      -10.172758800773163,
      -8.2578775614774962,
      -6.8252729525471043,
      -3.2792711756186512,
      -2.3462009802518158,
      -0.61194927032835045,
      -0.78121854779025535,
      -4.0567550936927974,
      -2.6549663966323998,
      -4.1137691931558349,
      -8.1141815610421943,
      -5.9153684392974091,
      -1.6312557489038393,
      1.0982336941578783,
      3.6340493541609398,
      -8.4521005306258736,
      5.0679177888271942,
      5.9546774555829485,
      10.973836650518289,
      2.8730579564237146,
      1.2018518274142318,
      0.015514723517583387,
      0.058141409794208544,
      -0.32487215323980262,
      -1.259582275375454,
      -0.58720773288514994,
      0.27392809471440144,
      -1.224708223925767,
      -3.6605965544551626,
      -4.92502950888804,
      -8.5638431559928048
    ],
    [
      -1.1018209573538644,
      -0.93493966987606769,
      -0.00918443731305973,
      -0.30505146112087411,
      1.1850217467382314,
      3.8136385947095932,
      5.0166857026296405,
      -0.42362887521639336,
      -0.70810972723131438,
      1.0899670773808881,
      0.86649725030170688,
      3.4925190496293319,
      2.2846008706249519,
      -0.65773161134856462,
      -2.1589371832241091,
      -3.7990573384789705,
      -0.1752810708303966,
      -1.7167106195459723,
      -4.1178565556842415,
      -3.9985107808755678,
      -2.4916528963029303,
      -1.5905561249771352,
      -1.5195809062353587,
      -1.8305349545336098,
      -2.2366135538203422,
      -3.7316285117599386,
      -4.543783873482222,
      -6.2754105469713357,
      -6.6209152997038956,
      -6.1880080487231375,
      -6.183641631618717,
      -6.0693114423135857
    ],
    [
      -2.8522305113086754,
      -4.2965411333584083,
      -3.2013072240692946,
      -1.9842321718777154,
      -0.45804406451535057,
      0.25780456188165907,
      0.55274262858335288,
      1.516006267703774,
      1.3575413141109216,
      0.22880586138232889,
      -1.2682710365388679,
      -2.6685188028337121,
      -1.1006341820587469,
      1.727554456264216,
      3.4803344475046,
      6.1546422226580395,
      3.3443086041665704,
      2.95585590140814,
      1.7158716664381783,
      2.3017362118963485,
      0.70157087740664037,
      0.14423348618404558,
      -0.49890706067074053,
      0.46017813711255817,
      0.60300117486520977,
      0.46785186574481386,
      1.276860075952688,
      1.8911786074718668,
      1.4103340508812035,
      1.545398858248187,
      1.5242907480796777,
      1.3649769254950022
    ],
    [
      -9.0625796183506431,
      -10.861841177340349,
      4.4953304682540605,
      4.5101835947680966,
      4.3069688878586456,
      5.7024562581862339,
      23.511437692463339,
      11.515879531806323,
      6.1204613612004186,
      7.4095114874472383,
      12.714394598457337,
      -3.4011580499211,
      -4.2084424252364947,
      12.019433067488169,
      16.2172285661802,
      18.630582546534136,
      -11.063530102976275,
      3.0538728954251244,
      3.752826660428267,
      1.5616523075960334,
      -8.2882820324338926,
      -9.0186949511842514,
      -19.034262702425977,
      -14.540600698368875,
      -15.529117894501189,
      -17.661605087385858,
      -19.82512369065422,
      -12.173589054176921,
      -9.7838882073286211,
      -11.228347480488063,
      -7.6746484718044341,
      -9.67662981614011
    ],
    [
      2.183386962948489,
      -0.607563625935655,
      2.2327832798836238,
      1.2562004169525289,
      2.61910819423999,
      4.06294045109409,
      8.225130366239565,
      6.5167276574835036,
      3.39928050064373,
      4.5634369692885564,
      4.9778708558346878,
      2.5864244815634416,
      0.14260755406587783,
      0.0098992914243759469,
      2.1565907136211977,
      1.9289504229463446,
      -1.6284906408062294,
      3.8216782642189413,
      2.8856314309492297,
      1.7251075733527734,
      -1.3641138781013475,
      -3.1318315243976063,
      -3.2213976403392626,
      -3.2327061704389104,
      -3.6091594120830419,
      -4.983362417142132,
      -5.5221026682422227,
      -3.0062364743496355,
      -3.4183039515570868,
      -3.8724877283614423,
      -2.4909101037747985,
      -2.22647895038052
    ],
    [
      -4.579920037872423,
      -5.19389398470608,
      -3.7777671709880156,
      -1.7125565475408822,
      -0.94522269347113441,
      -1.49247224395879,
      -1.5105197572948286,
      -1.353658580514207,
      -0.69956195303417068,
      -0.65714881795953328,
      -2.2910550660088238,
      -3.2313790457321625,
      -2.8350668825225691,
      -1.1007300807297666,
      1.3190193705793023,
      4.085316873560477,
      2.2801185891601352,
      1.4714196190701858,
      0.760203037291556,
      0.42137241924986513,
      -0.35152750658702653,
      -0.4322989780255927,
      -0.88246296423208892,
      -0.76085276383944656,
      -0.99837977903719455,
      -0.8299116996245165,
      -0.62987102318411281,
      -0.5126839369434979,
      -0.45892044930619119,
      -0.58875893880100927,
      -0.35509152116883158,
      0.0043728688330185762
    ],
    [
      4.0237160224529811,
      4.5652021548493531,
      3.3222798086111225,
      2.7338719031809746,
      2.045473080727906,
      1.8121294525968104,
      2.452716639416785,
      3.8028837107652058,
      3.2750237331754639,
      3.4765823158469331,
      4.8530563026272358,
      5.25131025795842,
      2.5506363867672333,
      1.2493666932848231,
      -0.76801028456619735,
      -3.4580813082596369,
      -2.2838624300555921,
      -1.0239637822578669,
      -0.50297800868299436,
      -0.11934005696833448,
      -0.31158852226065031,
      -0.30597814152337544,
      0.2819125037478723,
      -0.16105100268389325,
      -0.18428729966141963,
      -0.364143262810669,
      -0.15703348677182322,
      -0.0725746437788885,
      -0.39909112534887142,
      -0.17557752830537091,
      -0.10499908061313826,
      -0.32932306423248653
    ],
    [
      2.3482371001668549,
      1.1645413575898811,
      1.0838088400579169,
      0.95776873934409734,
      1.4260586454189652,
      1.7741813764492169,
      2.0044800786457015,
      1.7496583539069215,
      1.3910391456324294,
      1.8397352129877258,
      2.3590339586311564,
      2.8171215433025241,
      2.8489877777417325,
      1.4974202996398842,
      0.86562306607193207,
      -1.3116999180899167,
      -0.94231286651401214,
      -0.14398956779730898,
      -0.046726799277913823,
      -0.21290170169503736,
      -0.18551395637687004,
      -0.64721899819605877,
      -0.90192889031614165,
      -0.54998755799436516,
      -0.26162392112617494,
      -0.41996505057689515,
      -0.76169861920090942,
      -0.58115161393625192,
      -0.23753613520177308,
      0.10688947131826981,
      0.062316873297218127,
      0.54228204177196371
    ]
  ],
  "weightsHiddenOutput": [
    [
      -7.3765713737230154,
      -6.790697471227733,
      5.2012626337079366,
      -2.7477571696295349,
      -2.0602455915444491,
      3.456927821456155,
      2.6289725347806536,
      3.0985840663300883,
      -2.970200582589325,
      -2.679385822183582
    ],
    [
      -6.713568426385101,
      -10.694844668028148,
      -4.1817295596217505,
      -2.9072522368859155,
      4.2609872316306321,
      -7.3195824975957633,
      -5.2290636369751535,
      1.188945779525268,
      0.014895340880546122,
      -0.068594102086234676
    ],
    [
      7.8635099330494578,
      5.8951345578798291,
      -4.54909349965956,
      2.8220885372073976,
      -1.8476248542146276,
      0.10766300644577938,
      4.2367427154362716,
      -3.9486228408299544,
      1.4212750807523358,
      0.86892687183321216
    ]
  ],
  "biasHidden": [
    -4.7723350019770487,
    -10.675974756135441,
    2.4976927917184533,
    -6.7929183014614418,
    2.2007647002348318,
    5.4768737778396073,
    4.1541268753510332,
    -2.1522234071804469,
    2.494808863832803,
    2.2846405856569856
  ],
  "biasOutput": [
    3.4511957787628207,
    2.7423011068345362,
    -6.78229338624182
  ]
}